
\data\
ngram 1=10
ngram 2=14

\1-grams:
-0.6690068  </s>
-99 <s> -7.490558
-0.845098   中国    -7.335683
-0.845098   今天    -7.414865
-0.845098   北京    -7.335683
-1.146128   去  -99
-1.146128   我  -99
-1.146128   是  -99
-1.146128   的  -99
-1.146128   首都    -99

\2-grams:
-0.4771213  <s> 今天
-0.4771213  <s> 北京
-0.4771213  <s> 我
-0.30103    中国 </s>
-0.30103    中国 首都
-0.30103    今天 去
-0.30103    今天 的
-0.30103    北京 </s>
-0.30103    北京 是
0   去 北京
0   我 今天
0   是 中国
0   的 中国
0   首都 </s>

\end\
